{"type":"NeuralNetwork","sizes":[65,3,2],"layers":[{"weights":[],"biases":[]},{"weights":[[-0.24748849868774414,-0.8096014857292175,-0.5063391327857971,0.25459739565849304,-0.37536507844924927,-0.7024911046028137,0.11664420366287231,-0.5828385353088379,-0.8893203139305115,-0.33734092116355896,0.12629413604736328,-0.2582055330276489,-0.2743862271308899,-0.3915327489376068,1.5350580215454102,-0.30166780948638916,-0.10217925906181335,-0.30877387523651123,-0.6946435570716858,-0.20903588831424713,-0.02426321618258953,0.01796651817858219,-0.5078462362289429,-0.5570001006126404,0.5906060338020325,-0.42014217376708984,-0.08345887064933777,-0.6245868802070618,-0.1437031477689743,-0.0730028748512268,-0.05817246064543724,-0.4555579125881195,-0.40273624658584595,-0.09118560701608658,-0.4615013301372528,-0.19543348252773285,-0.17506563663482666,0.34002527594566345,0.7180628776550293,1.0058380365371704,0.47854286432266235,0.014779241755604744,0.5973749160766602,0.008014863356947899,0.2727675139904022,0.004973001312464476,0.17732994258403778,0.1316019743680954,0.41304776072502136,0.2887743413448334,0.08774015307426453,0.1213851273059845,0.39015886187553406,0.12476970255374908,0.24691832065582275,0.20165717601776123,0.37352052330970764,0.11519201844930649,0.09106721729040146,0.13556364178657532,0.20255373418331146,0.2574070692062378,0.05634598433971405,0.29393890500068665,0.2684701979160309],[0.005299283191561699,0.4851442873477936,0.007890124805271626,0.03468199446797371,0.05860035493969917,0.3053267300128937,-0.027057524770498276,0.16924509406089783,0.5284602642059326,0.3489511013031006,-0.2007688730955124,0.12001188844442368,0.04401993751525879,0.14852754771709442,-0.7546253204345703,0.12155000865459442,0.07125604897737503,0.18717274069786072,0.22920742630958557,0.07802775502204895,0.19373463094234467,0.03349464759230614,0.24497796595096588,0.23486728966236115,-0.3343459665775299,0.3865269422531128,0.07665468007326126,0.2946418821811676,0.21082539856433868,0.04864799231290817,0.15377843379974365,0.07524435222148895,0.15971164405345917,0.3874574303627014,0.030414940789341927,0.20212265849113464,0.3032819926738739,-0.37606701254844666,-0.3478447496891022,-0.6718865036964417,-0.23985996842384338,-0.2244534194469452,-0.34563782811164856,-0.2691708505153656,-0.268480122089386,-0.11528057605028152,-0.007729036267846823,-0.06400976330041885,-0.22272756695747375,-0.18779607117176056,-0.12243896722793579,-0.19322815537452698,-0.10510694235563278,0.021404674276709557,-0.03289298713207245,-0.12586656212806702,-0.05391179397702217,-0.19722160696983337,-0.1966429203748703,-0.14217114448547363,-0.15372875332832336,-0.1751931756734848,-0.11494895070791245,0.0853017196059227,-0.18080729246139526],[-0.16959618031978607,-0.7802056074142456,-0.2444518357515335,0.09092297405004501,-0.29733920097351074,-0.6050867438316345,0.11843015253543854,-0.4884735643863678,-0.6942251920700073,-0.002139287069439888,0.19322165846824646,-0.19393277168273926,-0.4623548090457916,-0.35848960280418396,1.1653958559036255,-0.12681762874126434,-0.1261148601770401,-0.4544474482536316,-0.3436383306980133,-0.01023227907717228,0.06083041802048683,-0.024550681933760643,-0.34928393363952637,-0.15795010328292847,0.5148473381996155,-0.2437310367822647,-0.04958893731236458,-0.3656367361545563,-0.022610655054450035,-0.07828286290168762,-0.09227591753005981,-0.4217163622379303,-0.22690483927726746,-0.14642609655857086,-0.16750553250312805,-0.26964759826660156,-0.38767310976982117,0.4423828423023224,0.7153552770614624,0.8415876626968384,0.6521079540252686,0.23676006495952606,0.44007453322410583,0.2424044907093048,0.16394005715847015,0.19069667160511017,0.1366872638463974,-0.0035977528896182775,0.33936503529548645,0.12360414117574692,0.2645787298679352,0.06048751622438431,0.3405393660068512,0.15946821868419647,0.2549106180667877,0.2239852398633957,0.1290431171655655,0.09812294691801071,0.31100282073020935,0.17723870277404785,0.28631508350372314,0.08202207833528519,-0.02457432635128498,0.022523153573274612,0.2644703984260559]],"biases":[-0.37433549761772156,0.26002803444862366,-0.46949446201324463]},{"weights":[[-2.812441110610962,1.6686069965362549,-2.0198514461517334],[2.773507595062256,-1.6925935745239258,2.0875473022460938]],"biases":[1.353785753250122,-1.3558725118637085]}],"inputLookup":{"solicit":0,"manten":1,"par":2,"la":3,"gr":4,"a":5,"de":6,"carg":7,"necesit":8,"revisi":9,"n":10,"t":11,"cnic":12,"hay":13,"un":14,"problem":15,"con":16,"el":17,"sistem":18,"descarg":19,"se":20,"inform":21,"una":22,"aver":23,"en":24,"equip":25,"est":26,"fall":27,"por":28,"favor":29,"realic":30,"revis":31,"elevaci":32,"parec":33,"estar":34,"transport":35,"urgent":36,"report":37,"incident":38,"segur":39,"rea":40,"hub":41,"accident":42,"muell":43,"durant":44,"turn":45,"ma":46,"ana":47,"trabaj":48,"result":49,"her":50,"zon":51,"atenci":52,"sobr":53,"manipulaci":54,"almacen":55,"ocurri":56,"recepci":57,"investig":58,"relacion":59,"uso":60,"requier":61,"necesari":62,"deb":63,"recient":64},"inputLookupLength":65,"outputLookup":{"Solicitud de Mantenimiento":0,"Incidente de Seguridad":1},"outputLookupLength":2,"options":{"inputSize":0,"outputSize":0,"binaryThresh":0.5,"hiddenLayers":[3]},"trainOpts":{"activation":"sigmoid","iterations":20000,"errorThresh":0.005,"log":false,"logPeriod":10,"leakyReluAlpha":0.01,"learningRate":0.3,"momentum":0.1,"callbackPeriod":10,"timeout":"Infinity","beta1":0.9,"beta2":0.999,"epsilon":1e-8}}